<?xml version="1.0"?>
<opencv_storage>
<my_svm type_id="opencv-ml-svm">
  <svm_type>C_SVC</svm_type>
  <kernel><type>LINEAR</type></kernel>
  <C>1.1500000000000000e-03</C>
  <term_criteria><epsilon>9.9999999747524271e-07</epsilon>
    <iterations>50000</iterations></term_criteria>
  <var_all>324</var_all>
  <var_count>324</var_count>
  <class_count>2</class_count>
  <class_labels type_id="opencv-matrix">
    <rows>1</rows>
    <cols>2</cols>
    <dt>i</dt>
    <data>
      -1 1</data></class_labels>
  <sv_total>1</sv_total>
  <support_vectors>
    <_>
      -3.05870990e-03 -5.54457530e-02 -2.06924751e-02 3.55996825e-02
      1.07866190e-01 4.78090420e-02 3.15028168e-02 1.83104537e-02
      3.29717323e-02 -7.53020942e-02 -1.17130838e-01 -6.84015974e-02
      1.06712198e-02 6.90476671e-02 8.79653846e-04 -9.94452089e-03
      -2.59601027e-02 -2.84113139e-02 7.99235515e-03 -4.91051711e-02
      -4.16841619e-02 -3.70391384e-02 -7.84960482e-03 4.35158564e-03
      3.07421461e-02 1.75968837e-02 3.74219157e-02 -4.57085930e-02
      -8.98544267e-02 -6.56283423e-02 -4.45762090e-02 -2.98063084e-02
      -5.40112518e-02 -5.99970017e-03 -1.44805703e-02 -7.52118975e-03
      -5.00874631e-02 -7.90184662e-02 -2.39711758e-02 5.29545359e-02
      7.92200565e-02 -1.62757579e-02 -1.04643973e-02 -1.75184645e-02
      -1.30270058e-02 -5.28258272e-02 -5.19946069e-02 1.18434122e-02
      7.24021122e-02 5.98444194e-02 -6.08341247e-02 -5.31496964e-02
      -4.93110903e-02 -4.57898825e-02 -8.43296200e-03 -3.84684168e-02
      -8.48016050e-03 1.22295041e-02 -2.60489583e-02 -6.75646886e-02
      -6.24564989e-03 -1.34860340e-03 1.87146161e-02 1.43305911e-02
      -7.67511362e-03 1.78349223e-02 1.45275509e-02 -2.53236368e-02
      -1.23230599e-01 -4.87704389e-02 -2.43620109e-02 1.30027737e-02
      -2.16373280e-02 -4.91920335e-04 5.14385961e-02 8.92204195e-02
      5.24443127e-02 -8.77565593e-02 -6.56606704e-02 -5.47638685e-02
      -4.37454022e-02 4.08101343e-02 5.45450673e-02 8.67301747e-02
      1.02084100e-01 3.06787528e-02 -1.20072983e-01 -6.43215403e-02
      -3.56376506e-02 4.37333714e-04 2.76117865e-02 2.32389681e-02
      4.28014100e-02 2.31270939e-02 -5.32487705e-02 -1.56263068e-01
      -6.92769960e-02 -3.19564976e-02 5.65134827e-03 7.96878785e-02
      6.87783659e-02 7.38447979e-02 3.86532545e-02 -6.36155754e-02
      -1.66750059e-01 -5.04880324e-02 -3.44905094e-03 5.24258502e-02
      7.87992328e-02 2.43632011e-02 1.03609841e-02 -4.37489115e-02
      -1.08250439e-01 -2.76675802e-02 5.25381826e-02 4.87131402e-02
      8.93611461e-02 5.09126484e-02 1.55642936e-02 1.56115135e-02
      -4.50439081e-02 -1.15903512e-01 -7.80949295e-02 4.04567420e-02
      4.55302484e-02 6.95506260e-02 9.57488865e-02 6.32932931e-02
      5.83651476e-02 -4.78024827e-03 -1.14255413e-01 -9.65395346e-02
      2.97151785e-02 4.02198322e-02 9.06139761e-02 7.83217847e-02
      5.22412919e-02 5.01605757e-02 -2.50239205e-02 -1.08362943e-01
      -1.15337051e-01 3.66503000e-02 4.40857261e-02 7.46121332e-02
      6.25601709e-02 3.33842300e-02 3.59477550e-02 -3.67825921e-03
      -1.17268600e-01 -8.00025612e-02 4.23921123e-02 5.12010492e-02
      8.07267204e-02 7.25354180e-02 4.38154824e-02 3.97115685e-02
      -3.14288102e-02 -1.06927678e-01 -1.47882402e-01 5.71602443e-03
      3.66753563e-02 7.53918067e-02 7.60517642e-02 5.44734448e-02
      5.05094714e-02 -1.59532540e-02 -1.13302499e-01 -7.85513073e-02
      5.61760701e-02 5.84638193e-02 8.02802145e-02 6.84048757e-02
      3.62823755e-02 8.91099498e-03 -7.34378025e-02 -9.43062752e-02
      -9.50951651e-02 4.64261882e-02 6.11530803e-02 8.01500529e-02
      7.27158487e-02 4.98488024e-02 4.34758365e-02 -1.24501800e-02
      -1.31443098e-01 -1.36780277e-01 6.64821500e-03 3.84815410e-02
      6.97453469e-02 1.11425817e-01 8.25978816e-02 6.82657212e-02
      -1.21687772e-03 -1.34722248e-01 -1.45317525e-01 2.34609861e-02
      6.10283501e-02 1.08818538e-01 6.48895204e-02 3.41708846e-02
      1.10492744e-02 -6.65867403e-02 -1.14335045e-01 -7.50031844e-02
      4.34743054e-02 5.83646260e-02 7.86489919e-02 1.05065554e-01
      5.91844805e-02 3.03411148e-02 -6.04523309e-02 -1.20910868e-01
      -7.62019604e-02 6.95888251e-02 8.36691931e-02 1.22342750e-01
      5.01098521e-02 3.25642861e-02 4.86490428e-02 3.98052484e-02
      -4.55894582e-02 -7.60182440e-02 -1.44842090e-02 -1.21328374e-02
      3.98968533e-02 2.96437251e-03 2.51631928e-03 2.50272639e-02
      7.73279089e-03 -4.66425493e-02 -7.88576677e-02 -1.31650493e-02
      -2.77449396e-02 -5.30015444e-03 2.84545664e-02 5.00290887e-03
      3.59991677e-02 6.75075278e-02 5.58580123e-02 -2.51351111e-02
      -1.90121494e-02 -2.73254309e-02 1.50772836e-02 -5.05318157e-02
      -4.74020727e-02 -1.10457959e-02 3.49883921e-02 3.93988527e-02
      -3.03555895e-02 -4.07447852e-02 -7.47255385e-02 -6.48862347e-02
      3.50370188e-03 7.98327150e-04 1.26841934e-02 -1.98635063e-03
      -4.68415283e-02 -2.63769180e-02 2.86034383e-02 -2.88446364e-03
      4.46185237e-03 7.13342568e-04 -1.51645625e-02 -2.55580172e-02
      -5.46350628e-02 -4.11854312e-02 -2.18615606e-02 3.31033021e-02
      1.73440687e-02 1.83786564e-02 -5.45517169e-02 -4.62579578e-02
      -1.54313492e-02 2.13509761e-02 5.16043529e-02 2.42206156e-02
      7.82473013e-03 -4.75031212e-02 -5.78799620e-02 -6.36711046e-02
      -6.39526099e-02 -4.50714864e-02 -1.06306728e-02 4.57990356e-02
      4.05491479e-02 3.33297513e-02 -1.73172951e-02 -4.84779999e-02
      -1.03559243e-02 -3.39306779e-02 -4.96220775e-02 -8.51287469e-02
      -7.26446062e-02 -2.05467399e-02 3.56859490e-02 2.84082070e-02
      2.42231153e-02 3.92907411e-02 -4.67564957e-03 -2.88353637e-02
      -9.25799385e-02 -7.65151605e-02 -9.93750244e-03 5.87029979e-02
      5.67777306e-02 7.64623135e-02 -6.60304278e-02 -7.24890232e-02
      -5.64672835e-02 -4.03169990e-02 3.31084207e-02 5.05621918e-02
      4.85745184e-02 1.93741787e-02 -1.43945795e-02 -1.18860621e-02
      -4.99294288e-02 -4.91915271e-02 -5.10928780e-02 3.82137336e-02
      7.50268623e-02 8.15596655e-02 6.02833591e-02 5.01378104e-02</_></support_vectors>
  <decision_functions>
    <_>
      <sv_count>1</sv_count>
      <rho>-1.0729449663621553e+00</rho>
      <alpha>
        1.</alpha>
      <index>
        0</index></_></decision_functions></my_svm>
</opencv_storage>
