<?xml version="1.0"?>
<opencv_storage>
<my_svm type_id="opencv-ml-svm">
  <svm_type>C_SVC</svm_type>
  <kernel><type>LINEAR</type></kernel>
  <C>1.0000000000000000e-02</C>
  <term_criteria><epsilon>1.1920928955078125e-07</epsilon>
    <iterations>50000</iterations></term_criteria>
  <var_all>1764</var_all>
  <var_count>1764</var_count>
  <class_count>2</class_count>
  <class_labels type_id="opencv-matrix">
    <rows>1</rows>
    <cols>2</cols>
    <dt>i</dt>
    <data>
      -1 1</data></class_labels>
  <sv_total>1</sv_total>
  <support_vectors>
    <_>
      -1.48282170e-01 -2.00248212e-01 -6.00227825e-02 1.96518074e-03
      7.22579584e-02 1.19774200e-01 6.98564872e-02 6.72855675e-02
      3.92671116e-03 -1.70661569e-01 -2.08165124e-01 -6.81751892e-02
      8.50682557e-02 8.07571933e-02 6.68621901e-03 8.70291702e-03
      1.21107381e-02 -3.28558944e-02 -3.85519005e-02 -1.05083257e-01
      -6.13050349e-02 3.36989737e-03 6.00999594e-02 1.10116437e-01
      1.00786425e-01 9.87716839e-02 6.88050240e-02 -1.00643545e-01
      -1.47454947e-01 -5.86152375e-02 5.63425981e-02 8.75414163e-02
      5.40260263e-02 5.85905947e-02 4.70887497e-02 4.80881035e-02
      -1.60332739e-01 -1.53199792e-01 -3.97504605e-02 7.85492435e-02
      6.97421953e-02 3.42440866e-02 1.88773870e-02 1.39108794e-02
      -5.49468510e-02 -1.29440576e-01 -1.38155416e-01 -8.22886452e-02
      -5.30200340e-02 -7.87592959e-03 1.11128064e-02 -7.13647204e-03
      2.12978907e-02 -6.22857511e-02 -7.82361180e-02 -9.49494690e-02
      6.32525748e-03 7.69641697e-02 8.62088650e-02 6.74726218e-02
      5.72503954e-02 7.11305365e-02 6.15940541e-02 -3.84755135e-02
      -5.53531982e-02 1.26687065e-02 -2.57728361e-02 6.92048902e-03
      9.80276149e-03 4.02687415e-02 6.18831329e-02 5.52878454e-02
      -1.56156480e-01 -9.20711756e-02 -7.87236169e-02 -6.04569800e-02
      1.52542833e-02 4.89393063e-03 -4.71375883e-02 -2.58278288e-02
      -1.26173556e-01 -1.46991372e-01 -6.32725805e-02 -3.90598439e-02
      -5.10012545e-02 4.58533056e-02 2.64659934e-02 -1.68129131e-02
      -4.03055213e-02 -1.22354046e-01 -2.71600652e-02 -1.19680865e-02
      -6.30804338e-03 -5.74598871e-02 -2.12185588e-02 1.25369951e-02
      1.22826844e-02 4.75538410e-02 -1.03789114e-03 -3.02056205e-02
      2.64658965e-03 1.36286560e-02 -4.77955006e-02 2.99309138e-02
      1.22379512e-02 4.02600579e-02 2.86972225e-02 -3.46226171e-02
      -1.59379527e-01 -3.89766023e-02 -3.51678617e-02 -6.57079816e-02
      -3.35660465e-02 -9.46751796e-03 -6.01542816e-02 -5.92925362e-02
      -1.57802597e-01 -1.51797786e-01 9.40084085e-03 5.47601581e-02
      6.13657236e-02 1.36552863e-02 4.75349417e-03 -1.89741664e-02
      -7.76545852e-02 -1.76256448e-01 -8.88578594e-02 -7.24019483e-03
      -7.67799444e-04 -7.19432086e-02 -3.57349999e-02 -3.56206372e-02
      -3.01559772e-02 -1.25291049e-02 -8.05118829e-02 -3.40498984e-02
      3.61101292e-02 6.58581704e-02 -2.44072713e-02 2.40992215e-02
      -2.82403771e-02 2.21682377e-02 4.91053611e-03 -4.13663462e-02
      -1.61041543e-01 -3.23097035e-02 1.48216523e-02 4.91930395e-02
      7.01255538e-03 -1.92159489e-02 -6.27420172e-02 -1.31215185e-01
      -2.14546457e-01 -2.01935813e-01 -4.75286655e-02 1.27972858e-02
      5.33884019e-02 8.39649886e-02 4.86481376e-02 1.30605428e-02
      -1.02963261e-01 -2.13818982e-01 -6.25916123e-02 -1.75393447e-02
      1.16819171e-02 -2.58809756e-02 -7.18272524e-03 -5.29255420e-02
      -7.31455768e-03 -3.81369516e-02 -6.40121922e-02 -8.08997527e-02
      -2.03342065e-02 5.49029745e-02 -7.75502063e-03 4.67811599e-02
      2.47825105e-02 5.07108979e-02 -2.36628577e-02 -8.05851743e-02
      -2.22107396e-01 -7.62748420e-02 -9.23584623e-04 6.41076127e-03
      2.54575200e-02 6.76912256e-03 1.96683854e-02 -7.05437288e-02
      -2.02137113e-01 -1.94848135e-01 -4.37415056e-02 4.68842164e-02
      6.58694655e-02 1.73108093e-02 -2.29429547e-03 3.13924775e-02
      -3.77994590e-02 -1.76387832e-01 -1.17193453e-01 -2.52620410e-02
      5.82079403e-02 -8.40140972e-03 1.03456713e-02 -6.14750870e-02
      5.03042750e-02 -1.88109316e-02 -9.55678374e-02 -1.37438282e-01
      -1.90787893e-02 6.60477355e-02 -2.15695370e-02 -5.63199166e-03
      -4.49420325e-02 6.78222850e-02 -6.73149200e-03 -1.27652988e-01
      -2.11223781e-01 -4.40257080e-02 2.98019871e-02 7.29920492e-02
      1.62473414e-02 -4.09463122e-02 6.68664929e-03 -5.64726479e-02
      -1.77508742e-01 -4.89185564e-02 5.96403480e-02 1.36971876e-01
      1.62337035e-01 -9.94902626e-02 -1.33232847e-01 2.70677283e-02
      2.94084428e-04 -2.65669115e-02 -1.94848195e-01 -6.55364618e-02
      3.45702074e-03 1.56400225e-03 -3.06233596e-02 -6.62398040e-02
      4.70227040e-02 -1.90529935e-02 -1.44105658e-01 -8.97308160e-03
      5.44409826e-02 1.04360655e-01 5.13599031e-02 -1.25352502e-01
      -1.17291257e-01 1.04567125e-01 5.94901629e-02 2.69244600e-04
      -2.93776505e-02 -8.53816271e-02 -3.70519757e-02 -1.61500610e-02
      -4.97049838e-03 8.77051502e-02 8.29210803e-02 6.33506402e-02
      1.75349768e-02 -8.92530456e-02 -1.52584136e-01 -5.66633902e-02
      1.67218093e-02 5.46214879e-02 6.80410713e-02 7.79005960e-02
      5.80560267e-02 1.71530806e-02 1.53983999e-02 -2.08656806e-02
      2.48645972e-02 -5.61390556e-02 -2.43115164e-02 5.95424958e-02
      9.97787565e-02 8.15627426e-02 4.35706340e-02 -6.68172464e-02
      -1.35740474e-01 -4.26523387e-02 -4.77064848e-02 4.61483747e-02
      7.43407160e-02 9.00943875e-02 8.95122588e-02 1.61773451e-02
      -1.04686417e-01 -1.09408967e-01 -3.23903561e-02 6.70609204e-03
      1.65513307e-02 7.08713010e-02 6.24342524e-02 6.61808625e-02
      1.77216008e-02 -7.62653500e-02 -7.43071437e-02 -3.22767906e-02
      -6.33015856e-02 -6.68320879e-02 -1.01555698e-02 1.51528139e-02
      4.26560268e-02 1.40252598e-02 -2.53883339e-02 -8.88626277e-02
      -1.79402865e-02 5.84405661e-03 2.00458542e-02 8.51864740e-02
      1.08418167e-01 1.02923356e-01 6.96098581e-02 -3.60406823e-02
      -6.97320551e-02 -4.74252589e-02 -5.05774170e-02 -1.47881927e-02
      4.09465879e-02 6.88893870e-02 8.57378393e-02 3.85475829e-02
      -6.28412440e-02 -3.72394882e-02 -3.31542902e-02 -7.49070421e-02
      -7.31100217e-02 -6.60732761e-03 -4.97751310e-03 8.76609329e-03
      -2.43992861e-02 -8.97911638e-02 -3.67062911e-02 2.87818313e-02
      -4.18362133e-02 -2.04784367e-02 -3.30975801e-02 9.30819008e-03
      -5.34261530e-03 -8.28590691e-02 -4.99098673e-02 -8.59837607e-03
      2.47443430e-02 1.78772712e-03 8.91457126e-03 4.03463729e-02
      3.60269547e-02 1.91188492e-02 -2.38604583e-02 -5.23741804e-02
      3.44126555e-03 4.31269407e-02 7.23303854e-03 -1.10145682e-03
      -2.16538180e-02 3.80586721e-02 2.32199896e-02 -4.82391119e-02
      -1.10284902e-01 -1.96598191e-02 9.37520619e-03 -7.16183335e-03
      -7.92573094e-02 -5.76584339e-02 -3.54688019e-02 -3.28448638e-02
      -1.24660201e-01 -8.25167820e-02 2.86602788e-02 3.78823914e-02
      1.25160506e-02 -3.78920063e-02 -5.49463695e-03 1.96080413e-02
      8.49738996e-03 -5.46859950e-02 -6.67872429e-02 -2.02316069e-03
      9.86756058e-04 -8.62556684e-04 -6.14363179e-02 -7.95850381e-02
      -3.39275342e-03 1.11711184e-02 -8.34836513e-02 -5.19138351e-02
      9.56657808e-03 3.83107774e-02 -1.84176043e-02 -4.22548167e-02
      -4.42263111e-02 1.56207718e-02 5.65628521e-03 -4.60251234e-02
      -9.07834023e-02 -6.40129391e-03 3.77823412e-02 1.87623501e-02
      -1.01336300e-01 -2.59933230e-02 3.31309810e-02 -1.03393896e-02
      -6.82327300e-02 -8.77823979e-02 -1.00659793e-02 6.59736693e-02
      5.89904264e-02 -2.34889556e-02 1.30750947e-02 5.93318157e-02
      -7.47079635e-03 -8.61245990e-02 -6.72228262e-02 -2.07072012e-02
      4.22614478e-02 -2.59508658e-02 -1.23908430e-01 -9.02980864e-02
      2.73008142e-02 8.24536849e-03 -3.62310596e-02 -7.05858544e-02
      -1.52980313e-02 6.80584833e-02 4.13430482e-03 -5.17639928e-02
      -3.24118286e-02 6.77182525e-02 1.54531039e-02 -7.64887780e-02
      -1.18361413e-01 -2.24570464e-02 5.25318719e-02 5.34871556e-02
      -2.05928050e-02 -9.96264815e-03 5.99849969e-02 -2.44102068e-02
      -1.22685432e-01 -1.36766449e-01 -3.06769405e-02 5.65235317e-02
      9.26137157e-03 -5.38232625e-02 5.18402318e-03 1.09921791e-01
      1.74658075e-02 -1.27357349e-01 -1.05578505e-01 -4.42603789e-03
      6.38074502e-02 1.78050417e-02 -4.16319333e-02 -6.04149178e-02
      7.26382509e-02 9.90945753e-03 -1.03048734e-01 -1.10791758e-01
      -3.25754806e-02 4.65402901e-02 -8.51483271e-02 -1.90105494e-02
      -5.66020086e-02 8.91937837e-02 2.01197024e-02 -8.77334476e-02
      -1.73522383e-01 -8.55954289e-02 -8.07819609e-03 -4.25225534e-02
      -1.08169377e-01 -2.68224590e-02 7.70878345e-02 -2.49353498e-02
      -1.51750535e-01 1.47312861e-02 4.74436507e-02 8.19884762e-02
      5.70714027e-02 -1.45117700e-01 -9.40091833e-02 1.43772215e-01
      7.92230219e-02 3.65220942e-02 -1.25739768e-01 -8.92230421e-02
      -4.20324318e-02 -1.04409941e-01 -9.99928415e-02 -8.83826166e-02
      8.38281587e-02 1.04290927e-02 -8.68864432e-02 6.49154037e-02
      6.47121891e-02 8.05925578e-02 -1.17670996e-02 -1.48895264e-01
      -8.67638960e-02 2.19825521e-01 1.30995885e-01 1.02084927e-01
      8.03836714e-03 -1.90320984e-02 1.22939274e-02 -6.92021623e-02
      -9.92774144e-02 4.69449162e-02 7.90728852e-02 5.20111471e-02
      3.44806015e-02 -5.21386936e-02 -9.34478194e-02 -4.87893354e-03
      -1.85323097e-02 1.42124891e-02 4.17199880e-02 4.74234335e-02
      4.26173136e-02 -1.43038016e-02 2.56652124e-02 8.21133319e-04
      5.42625710e-02 -2.62383595e-02 -8.80267993e-02 1.49303870e-02
      8.49844813e-02 5.08476458e-02 4.02637795e-02 -3.69394571e-02
      -4.91140783e-02 1.14763975e-02 3.73526383e-03 -2.92833569e-03
      5.95686845e-02 6.53154999e-02 2.71360092e-02 -2.01312359e-02
      -5.34194261e-02 -7.55453184e-02 -1.54166743e-02 1.49255982e-02
      8.23225360e-03 7.81506449e-02 5.47591969e-02 4.96924818e-02
      4.37906431e-03 -4.18236628e-02 -6.14075810e-02 -4.28973623e-02
      -4.50027324e-02 -4.19735909e-02 3.48996334e-02 4.37485389e-02
      3.02398987e-02 -1.39328279e-02 -3.46409269e-02 -1.75339207e-02
      4.25709374e-02 -3.61758284e-03 -8.62736069e-03 6.34785816e-02
      9.14349779e-02 6.11752458e-02 -1.95681285e-02 -2.84800697e-02
      -2.44095698e-02 -6.04012981e-03 -6.19038418e-02 -6.65243194e-02
      -3.18502123e-03 6.57057762e-02 4.12816368e-02 -2.16659177e-02
      -6.65502697e-02 -5.32374857e-03 4.51688515e-03 -2.28143632e-02
      -3.66184823e-02 -5.82133885e-03 4.00635833e-03 2.53865356e-03
      -4.44660038e-02 -6.45522177e-02 1.04034622e-03 2.93418001e-02
      -2.30541900e-02 -3.83875556e-02 -6.71920180e-02 1.41005088e-02
      1.84888579e-02 -2.67631263e-02 -2.12471448e-02 -3.78224271e-04
      8.58494197e-04 -5.01274392e-02 -4.21036221e-02 -1.47714512e-02
      2.90173534e-02 3.54363434e-02 -2.71864925e-02 -5.28134480e-02
      -1.16089936e-02 1.35144182e-02 -5.55272959e-02 -1.93934180e-02
      -3.60386670e-02 2.63850335e-02 2.31355280e-02 -4.80457880e-02
      -7.33123124e-02 9.61968690e-05 -4.08457243e-04 -4.26157191e-02
      -1.15653023e-01 -4.32710089e-02 2.22698897e-02 4.79824888e-03
      -5.68924174e-02 -3.40636484e-02 7.83075765e-03 2.56492179e-02
      -4.20083441e-02 -1.02675870e-01 -5.76966554e-02 1.75785292e-02
      1.90104339e-02 -4.39250283e-02 -7.06752315e-02 -4.16397955e-03
      -4.17867210e-03 -6.57811612e-02 -8.66190344e-02 -2.16716863e-02
      3.30724344e-02 1.45045547e-02 -4.51431870e-02 -1.43350717e-02
      4.80088331e-02 2.22541708e-02 -1.08797662e-01 -8.45220536e-02
      -7.19922855e-02 6.20499365e-02 4.53309342e-02 -1.40031260e-02
      -4.13387790e-02 -1.64434593e-02 1.71055812e-02 -4.59770449e-02
      -1.76753581e-01 -1.02344811e-01 1.66079365e-02 4.34766617e-03
      -3.97829115e-02 -3.82718667e-02 1.91969294e-02 8.27867091e-02
      8.00657831e-03 -1.18771374e-01 -4.19707187e-02 5.85734397e-02
      3.34013738e-02 -3.44437025e-02 4.25868295e-03 1.04130562e-02
      -5.76248160e-03 -1.12157986e-01 -1.35447204e-01 -1.07905194e-01
      4.93002571e-02 4.27367203e-02 -2.89596803e-03 2.42856555e-02
      3.43036577e-02 7.11774155e-02 -9.32557359e-02 -9.07464921e-02
      -5.61779179e-02 7.61617273e-02 3.50719169e-02 1.45850992e-02
      -5.78945577e-02 2.78466213e-02 8.88458267e-02 -3.42519931e-03
      -1.62143975e-01 -6.72344193e-02 4.41350788e-02 1.15064648e-03
      -4.42355052e-02 -4.03166935e-02 -2.15764958e-02 4.25716788e-02
      -5.08843511e-02 -9.51750204e-02 -7.06976578e-02 5.96182384e-02
      6.52446412e-03 -3.43903303e-02 6.98879827e-03 2.89592259e-02
      7.35925138e-02 -8.33310410e-02 -1.41523734e-01 -9.71516520e-02
      6.99593350e-02 2.01966111e-02 2.59102671e-03 -1.32940616e-02
      -3.70951416e-03 5.11987880e-02 -1.17948450e-01 -1.04224660e-01
      -8.94834250e-02 7.07531720e-02 1.82997007e-02 -3.63559811e-03
      -8.62611309e-02 -9.10761282e-02 -6.08755238e-02 -8.70139226e-02
      -1.63056314e-01 -8.35217014e-02 3.61160412e-02 -1.87328551e-02
      -6.96698949e-02 6.79839849e-02 2.58859191e-02 3.53283249e-02
      -1.51053919e-02 -2.14214191e-01 -7.40588754e-02 1.89766735e-01
      1.35576397e-01 1.15435794e-01 -6.64674640e-02 -4.25176695e-02
      -8.49060249e-03 -9.96703580e-02 -1.49677724e-01 -1.21674865e-01
      2.45843641e-02 -2.88100298e-02 -4.26355191e-02 1.22350194e-01
      7.56250545e-02 1.02695741e-01 -6.17198274e-02 -1.62418634e-01
      -7.86253065e-02 1.65400982e-01 1.31888807e-01 1.49387732e-01
      2.16657724e-02 2.08779853e-02 8.24056938e-02 -3.29909287e-02
      -1.55514911e-01 1.09625263e-02 9.23456997e-02 5.76689616e-02
      2.96610985e-02 -1.42947286e-02 -1.20382607e-02 3.79112400e-02
      1.67186949e-02 -1.63253937e-02 8.42282847e-02 9.35110152e-02
      5.46445698e-02 -1.76412426e-02 2.54996810e-02 7.61031508e-02
      1.12448141e-01 -3.06086075e-02 -1.59525573e-01 -7.74927065e-02
      6.36657178e-02 7.32629821e-02 4.65022288e-02 -1.41721955e-02
      4.00559343e-02 7.32653514e-02 5.61580136e-02 5.80429984e-03
      3.82052325e-02 9.30039808e-02 3.71643864e-02 -5.94689809e-05
      -3.71461101e-02 -1.69199612e-02 3.95302996e-02 -1.80405900e-02
      -2.46384591e-02 4.62896004e-02 9.11368430e-02 5.98909818e-02
      -2.06805542e-02 -2.18623448e-02 -5.29802032e-03 3.26909609e-02
      -5.88892400e-02 -5.61806150e-02 -4.47965646e-03 5.07920273e-02
      5.42615913e-02 5.70718013e-03 -3.50759290e-02 2.09421813e-02
      8.22192952e-02 4.97586094e-02 2.44631507e-02 1.94281619e-02
      8.19988623e-02 3.56497280e-02 -3.13574336e-02 -2.75852866e-02
      2.85628084e-02 4.81848530e-02 -1.69421770e-02 -3.05869021e-02
      -3.98513582e-03 5.07707298e-02 4.70666811e-02 -5.53810329e-04
      -1.78843923e-02 7.21380115e-03 9.33124963e-03 -7.48554021e-02
      -8.27706754e-02 -3.66712771e-02 2.06629243e-02 3.36348116e-02
      -6.90938253e-03 -6.24419078e-02 8.29799939e-03 7.44633516e-03
      -2.04711948e-02 -3.78522202e-02 -3.01481858e-02 1.65190212e-02
      1.80394761e-02 -4.09172066e-02 -3.64390085e-04 2.35730354e-02
      9.99079738e-03 -5.95369563e-02 -6.58359379e-02 -3.05755474e-02
      5.13794161e-02 5.24442270e-02 7.70930480e-03 -3.57794575e-02
      1.20555190e-02 2.57107941e-03 -4.68144193e-02 -6.30420148e-02
      -3.53734568e-02 4.28177975e-02 4.18078564e-02 -5.46451062e-02
      -9.46182907e-02 -2.69025825e-02 -5.29794255e-03 -3.55708115e-02
      -9.57430825e-02 -1.40430722e-02 1.33517450e-02 8.20780918e-03
      -6.53765872e-02 -3.35720442e-02 1.03403702e-02 -1.48395906e-04
      -8.36028755e-02 -9.68603715e-02 -4.11342606e-02 3.46893892e-02
      2.48319246e-02 1.96861732e-03 -7.07981884e-02 -5.83625352e-03
      1.78578980e-02 -3.83046828e-02 -7.61827976e-02 -2.53476612e-02
      1.77635029e-02 3.70975537e-03 -4.27792519e-02 -2.73504015e-03
      5.35367895e-03 5.57501614e-02 -9.46916789e-02 -8.71011019e-02
      -8.21418241e-02 1.49962492e-02 3.52551490e-02 2.97426768e-02
      7.06158951e-03 -1.04836915e-02 -6.96908636e-03 -1.15676545e-01
      -2.05727682e-01 -8.51840004e-02 1.07454369e-02 1.49993983e-03
      1.33924186e-02 1.60747040e-02 9.38523281e-03 5.05116954e-02
      -7.24724457e-02 -1.32984683e-01 -2.91884877e-02 8.43319371e-02
      3.28464843e-02 4.12635418e-04 3.23375240e-02 1.46532932e-03
      6.10474404e-03 -1.30196348e-01 -1.55992940e-01 -7.95188248e-02
      2.55925637e-02 3.24319415e-02 3.69816534e-02 2.91345436e-02
      3.99579778e-02 5.54258265e-02 -8.87725875e-02 -9.55289155e-02
      -3.93055081e-02 6.74465001e-02 4.11762968e-02 2.20517889e-02
      6.47363206e-03 1.31125823e-02 4.96188365e-02 -8.56196135e-02
      -2.18375072e-01 -5.33417538e-02 6.36197031e-02 8.78987554e-03
      1.25298640e-02 -1.10034384e-02 2.05714794e-04 6.20904118e-02
      -8.51854533e-02 -1.55112684e-01 -7.73533434e-02 4.26485315e-02
      9.85687412e-03 1.91239659e-02 1.56722032e-02 3.33036520e-02
      7.76534826e-02 -8.24315697e-02 -1.24327272e-01 -9.40845907e-02
      5.21412678e-02 1.94740631e-02 1.23732369e-02 -1.86729208e-02
      3.30159888e-02 6.58435002e-02 -1.17289990e-01 -1.19028337e-01
      -1.03457458e-01 3.96882966e-02 1.05348518e-02 -1.39050297e-02
      -5.52305765e-02 -3.10713686e-02 4.72733704e-03 -8.54214206e-02
      -1.78468958e-01 -9.08933729e-02 2.52014329e-03 -3.72051261e-02
      -3.61848921e-02 1.31212726e-01 8.84312689e-02 9.34913233e-02
      -5.87354004e-02 -2.60979414e-01 -1.05195969e-01 1.41987652e-01
      9.72959101e-02 1.44435063e-01 -6.60490692e-02 -5.71963657e-03
      -1.60410744e-03 -1.09127127e-01 -1.67012393e-01 -1.49297178e-01
      -2.63526104e-03 -4.72866856e-02 -7.76614919e-02 1.39400885e-01
      1.19113028e-01 1.07628763e-01 -1.16037890e-01 -2.39835888e-01
      -1.09198183e-01 1.21349178e-01 9.20933560e-02 1.27160251e-01
      6.44977242e-02 7.87002370e-02 1.39864028e-01 3.40311415e-02
      -1.50937751e-01 -5.77862263e-02 4.60144393e-02 3.96552794e-02
      5.37924245e-02 9.66015179e-03 5.55531308e-02 1.17015444e-01
      1.27305269e-01 -1.77738424e-02 2.20600292e-02 3.13350894e-02
      -4.32571322e-02 -3.71416076e-03 7.26923719e-02 5.88285699e-02
      8.69589150e-02 2.82315742e-02 -1.19045421e-01 -7.18617812e-02
      1.37147587e-02 -9.93728824e-03 2.78513618e-02 -7.14098802e-03
      3.09485104e-02 5.68882786e-02 1.06533267e-01 5.82329789e-03
      3.85244004e-02 2.91512441e-02 -5.49116284e-02 -2.66279988e-02
      -2.04190537e-02 1.71289369e-02 7.21371174e-02 8.01163912e-02
      1.30380187e-02 7.87792914e-03 5.71134873e-02 1.57942914e-03
      -2.08923407e-02 -2.83200783e-03 1.89329647e-02 4.66665179e-02
      2.58697011e-02 -3.84982228e-02 -3.04424968e-02 3.36465575e-02
      3.66207138e-02 8.38607363e-03 2.21004784e-02 1.33465910e-02
      4.88533266e-02 4.56822589e-02 -1.60001554e-02 -3.10600400e-02
      5.01966029e-02 -5.41452738e-03 -4.04733792e-03 3.90802473e-02
      5.08685783e-02 3.48744877e-02 1.30648157e-02 -6.53755665e-02
      -7.79368430e-02 3.03846654e-02 -1.36595254e-03 -2.21120589e-03
      1.96923092e-02 4.59737815e-02 3.61795872e-02 -3.69936302e-02
      -5.46639897e-02 -2.43101381e-02 1.94471665e-02 1.12359338e-02
      7.93967396e-03 -3.09240259e-03 2.26407535e-02 1.79785341e-02
      -6.53266534e-02 -5.85127138e-02 -3.64298490e-03 3.22272927e-02
      2.06881091e-02 -4.08368707e-02 -3.74672282e-03 4.78342026e-02
      8.13173316e-03 -4.55154777e-02 -5.30138798e-02 -8.15413445e-02
      -6.72210567e-03 -1.30630303e-02 -3.10120061e-02 -4.45616245e-02
      2.30443454e-03 -1.75346546e-02 -1.00776710e-01 -6.39404133e-02
      -1.08820379e-01 -3.73936258e-02 -5.49406791e-03 -6.30033016e-02
      -4.83098552e-02 -3.08422022e-03 1.08565167e-02 -8.18447024e-02
      -1.01141080e-01 -1.22314189e-02 6.59747561e-03 2.65430124e-03
      -4.58272845e-02 1.23060225e-02 2.85532549e-02 4.57852781e-02
      -3.79596092e-02 -6.58697262e-02 -9.51761904e-05 3.63542065e-02
      4.68096547e-02 4.24221642e-02 -8.22167769e-02 -3.72403227e-02
      -2.85545439e-02 -9.41541567e-02 -8.56660157e-02 -9.14965644e-02
      -3.76271196e-02 -2.57475767e-02 -7.52205551e-02 -2.76488867e-02
      -8.43149237e-03 5.71580185e-03 -8.70077088e-02 -8.12586471e-02
      -4.55735140e-02 3.80371064e-02 6.88246451e-04 -2.54352447e-02
      1.73043162e-02 4.37773205e-03 -9.82610509e-03 -9.91508514e-02
      -1.84412509e-01 -4.50445078e-02 2.94453092e-03 1.15370275e-02
      4.45716176e-03 8.37213174e-03 2.37602629e-02 3.36495116e-02
      -2.06378917e-03 -6.92774057e-02 -1.18805179e-02 4.20308858e-02
      3.25596035e-02 8.98494013e-03 -1.82483271e-02 -5.66460937e-03
      -1.10535463e-02 -1.04335941e-01 -1.53627157e-01 -8.40127990e-02
      1.12667084e-02 -1.02320630e-02 -3.49871106e-02 -1.13340905e-02
      1.10508408e-02 5.85162826e-02 -3.88740413e-02 -4.61812019e-02
      -2.82169711e-02 5.21948040e-02 2.81041116e-02 -9.55965184e-03
      -2.45159096e-03 1.91581212e-02 4.82869372e-02 -2.73085888e-02
      -1.07482404e-01 -4.15772572e-02 2.49640848e-02 2.22853515e-02
      -3.89359338e-04 -1.82027966e-02 1.14360666e-02 4.58486080e-02
      -5.81321009e-02 -1.18147187e-01 -8.46139863e-02 2.94300672e-02
      1.40873166e-02 -2.40028501e-02 -6.93226531e-02 -2.88913511e-02
      2.80331224e-02 -6.20349012e-02 -9.09739435e-02 -7.44874552e-02
      4.35702018e-02 2.46093534e-02 -3.65224108e-02 -7.10266307e-02
      -2.44687386e-02 3.39308865e-02 -8.31720605e-02 -7.68205971e-02
      -9.06555131e-02 1.24463122e-02 -1.71632189e-02 -6.25035837e-02
      -4.68834341e-02 -3.11725866e-03 5.08832633e-02 -3.37978418e-04
      -1.27628088e-01 -6.46230951e-02 1.39706617e-03 -1.88326929e-02
      -7.66208395e-02 1.17045246e-01 1.00869849e-01 1.26935408e-01
      -5.07492423e-02 -2.39661500e-01 -3.02696191e-02 1.11172251e-01
      1.14397503e-01 1.12253316e-01 -9.42519605e-02 -3.18895467e-02
      3.33333351e-02 -2.26253252e-02 -9.90293324e-02 -1.02127835e-01
      -2.88770907e-02 -8.48247036e-02 -1.27059132e-01 7.27951452e-02
      9.13775340e-02 8.68001059e-02 -1.53734624e-01 -2.19775960e-01
      -7.48786852e-02 5.08328639e-02 4.00971733e-02 4.42031398e-02
      9.72959921e-02 6.96602464e-02 6.48316741e-02 2.88741849e-02
      -6.29329830e-02 3.95175943e-04 8.86155386e-03 -3.82594503e-02
      1.97521113e-02 2.65923683e-02 4.16589305e-02 5.28844558e-02
      6.62869290e-02 5.69904260e-02 9.13183168e-02 4.77191582e-02
      -5.04329242e-02 -4.03939746e-02 3.60264890e-02 7.85123333e-02
      6.55858591e-02 3.06645632e-02 -6.00737184e-02 -2.36946810e-02
      -4.81624007e-02 -1.09360769e-01 -6.06622025e-02 1.25866543e-04
      3.73446271e-02 2.83733867e-02 6.41572252e-02 2.69768313e-02
      5.47168702e-02 -2.67898832e-02 -1.07112445e-01 -8.82137790e-02
      3.29106264e-02 7.72477761e-02 9.46308747e-02 5.82615845e-02
      1.30309360e-02 3.95567417e-02 7.40266889e-02 -4.40162681e-02
      -3.38311866e-02 2.67108753e-02 7.91104585e-02 5.02745323e-02
      2.41792779e-02 -2.31270883e-02 -7.96168763e-03 2.21247002e-02
      -1.55812893e-02 -1.28424298e-02 1.54057355e-03 5.69148846e-02
      5.27961999e-02 5.83934747e-02 5.36180241e-03 -1.81111023e-02
      -5.98898809e-03 -7.45971575e-02 -7.69712627e-02 -2.61656139e-02
      2.92617306e-02 4.47846390e-03 -9.28348210e-03 -7.37360641e-02
      -5.33190817e-02 -5.18188253e-02 -6.41818270e-02 -7.83095285e-02
      -7.11173797e-03 4.59378436e-02 2.63553541e-02 1.15694636e-02
      -3.55137475e-02 -5.61960340e-02 2.33385190e-02 1.88728441e-02
      1.93371363e-02 -3.83274443e-02 2.53833309e-02 2.67460141e-02
      1.04512870e-02 -2.95662172e-02 -5.81882149e-02 -3.85739724e-03
      -3.96027463e-03 -3.02956142e-02 -3.89853120e-02 -2.45000999e-02
      -3.07190744e-03 -1.39090298e-02 -7.25918189e-02 -8.96014348e-02
      -1.96500476e-02 -1.34942830e-02 -2.60396786e-02 -7.11201578e-02
      -3.28308381e-02 1.72000856e-03 -6.68255091e-02 -4.24933769e-02
      -6.93552792e-02 2.51335581e-03 -2.72713397e-02 -6.50635585e-02
      -8.70908201e-02 -1.68282352e-02 -1.19913812e-03 2.90697981e-02
      -6.06912225e-02 -5.67381009e-02 -2.46754903e-02 -3.46453860e-02
      -9.59763303e-02 -3.28621641e-02 -3.35290097e-03 1.68915391e-02
      2.62369756e-02 -1.47431539e-02 1.03973104e-02 4.78610024e-02
      4.62512998e-03 -3.93173210e-02 -9.07470062e-02 -3.30423154e-02
      -7.61104934e-03 -5.12527823e-02 -1.88235268e-02 -4.98491004e-02
      1.19048345e-03 -5.16576543e-02 -9.51884016e-02 -3.59290168e-02
      -4.50370833e-03 -1.12465620e-02 -3.04991789e-02 5.93223842e-03
      -5.56593435e-03 3.70486453e-02 -1.32847084e-02 -4.79210131e-02
      -2.35539507e-02 8.66512244e-04 1.29826833e-02 -3.54751721e-02
      -9.63359922e-02 -4.01820168e-02 2.25827787e-02 -1.36150569e-02
      -4.35404181e-02 -4.65241931e-02 2.29768921e-02 9.56962705e-02
      3.91135365e-02 1.19400034e-02 5.53444102e-02 9.55510512e-02
      3.25111896e-02 -1.64301042e-02 -5.90755865e-02 -8.90217908e-03
      -9.17870644e-03 -6.47650808e-02 -5.85045815e-02 -6.34361431e-02
      -3.58740203e-02 -5.74311987e-02 -7.16836154e-02 -7.12961406e-02
      1.91238301e-04 6.42836317e-02 -6.42319918e-02 4.84144606e-04
      1.18903173e-02 5.62231205e-02 -8.88086483e-03 -5.96268363e-02
      -8.53163898e-02 1.42944744e-03 6.34889081e-02 -1.93150248e-02
      -3.26314643e-02 2.94346064e-02 8.99981409e-02 3.86060290e-02
      -6.10260516e-02 -9.80774313e-02 8.59482121e-03 5.52317761e-02
      1.22380005e-02 -1.31955286e-02 -1.56756214e-04 4.82200496e-02
      1.29663264e-02 -1.11207396e-01 -1.27709493e-01 -1.30455401e-02
      3.68873663e-02 -6.30768612e-02 -4.39781770e-02 -2.53387727e-02
      6.83477744e-02 -4.31600912e-03 -1.18659414e-01 -1.75013825e-01
      -4.53352742e-02 2.57351901e-03 -4.49086726e-02 -2.36556050e-03
      -6.17785454e-02 -2.12975196e-03 -4.54506837e-02 -1.67417586e-01
      -1.05490781e-01 -9.62357223e-03 5.02320752e-02 4.45406139e-02
      -7.62193091e-03 2.72724349e-02 -1.19254459e-02 -4.73653153e-02
      -1.48690879e-01 7.64033794e-02 8.88612866e-02 6.42371252e-02
      -1.29732281e-01 -1.60931185e-01 4.48907055e-02 8.66847187e-02
      8.06680322e-02 4.94436696e-02 -1.97259367e-01 -7.30737224e-02
      1.00778379e-02 -1.87884904e-02 6.01646258e-03 -2.92161815e-02
      -4.69085276e-02 -7.30257928e-02 -1.88123345e-01 -4.95210616e-03
      3.01391687e-02 3.88263352e-03 -1.73370659e-01 -9.51617658e-02
      4.89900894e-02 7.33110234e-02 4.21929546e-02 -7.50069926e-03
      5.94544113e-02 1.05175018e-01 9.40603018e-02 5.77953309e-02
      -5.74426074e-03 -8.47148150e-03 -2.05156580e-02 -1.17565922e-01
      -3.11394129e-02 3.64322253e-02 7.19772577e-02 5.36210649e-02
      9.59618762e-02 1.14518173e-01 4.15941402e-02 -3.33176069e-02
      -1.01052560e-01 -3.42384391e-02 -2.25186143e-02 5.93312308e-02
      6.75026327e-02 9.32635516e-02 9.93317366e-03 -3.94104272e-02
      -5.75056896e-02 -1.73343018e-01 -1.28069490e-01 -6.20066375e-02
      2.15066895e-02 5.54335453e-02 1.09572954e-01 1.02252148e-01
      3.74261178e-02 -3.03115658e-02 -1.84871495e-01 -1.55248985e-01
      1.26829185e-02 4.12630402e-02 3.79241370e-02 1.00079298e-01
      7.41317198e-02 -1.79173779e-02 -8.96013901e-03 -1.01767212e-01
      -8.18651915e-02 1.22862794e-02 2.26148460e-02 3.44704371e-03
      1.31343249e-02 1.57300718e-02 -2.49241013e-02 -4.17595841e-02
      -5.78390844e-02 -5.87055050e-02 -9.19336602e-02 -1.24792131e-02
      3.11149601e-02 9.47015807e-02 7.01767132e-02 -1.85436811e-02
      -3.64776067e-02 -1.65229350e-01 -1.67804465e-01 -7.82511458e-02
      -3.07983942e-02 -1.38579234e-02 8.03808682e-03 4.71957289e-02
      -4.34232727e-02 -6.17746562e-02 -1.35989234e-01 -1.55647397e-01
      7.32392864e-03 8.85451958e-03 2.27015652e-02 7.71765923e-03
      -4.21386920e-02 -5.51565588e-02 -1.66397672e-02 -1.56700741e-02
      -3.65289450e-02 -1.69800688e-02 -2.43321946e-03 1.83713213e-02
      -7.99180847e-03 -6.32794853e-03 -4.23533618e-02 3.29550989e-02
      4.87713423e-03 -3.58138569e-02 -5.30094802e-02 -2.53961273e-02
      -9.13702883e-03 6.54457894e-04 3.44496146e-02 -3.97932604e-02
      -7.65504166e-02 -1.01175793e-01 -1.17775060e-01 -1.00569464e-01
      -4.96415049e-02 -3.03914044e-02 -5.72900735e-02 4.79450747e-02
      -3.36526744e-02 -5.45230918e-02 -1.13194220e-01 -1.48063615e-01
      -3.68915126e-02 -2.37144250e-02 -3.39853428e-02 -7.28129372e-02
      -5.51626720e-02 -2.08838508e-02 3.71202491e-02 5.25514269e-03
      -5.89410029e-02 8.51360790e-04 2.36714110e-02 1.37159796e-02
      1.62205230e-02 1.58523452e-02 3.04490663e-02 6.17263541e-02
      2.92283762e-02 -8.37094150e-03 -1.74985990e-01 -1.04545444e-01
      -1.11150347e-01 -9.07270834e-02 6.97683450e-03 -4.10971195e-02
      -2.91657895e-02 -9.54866037e-02 -1.84074596e-01 -1.50146872e-01
      -9.31370333e-02 -5.81860431e-02 -2.36900337e-02 5.88322692e-02
      -9.93295340e-04 5.73920980e-02 -8.21304880e-03 -1.42842680e-01
      -4.15329821e-02 -1.24542015e-02 2.28984933e-03 -1.16828168e-02
      -8.75204988e-03 8.13763868e-03 7.95336813e-03 -1.83125418e-02
      -4.07012925e-02 -6.50050119e-02 -1.93572324e-02 2.15093810e-02
      2.21622270e-03 7.34359995e-02 6.27723858e-02 6.32136837e-02
      1.91617459e-02 -2.85414811e-02 -2.12389573e-01 -1.24678053e-01
      -5.51337190e-02 -2.51005795e-02 4.45642769e-02 -6.11479692e-02
      1.38863185e-02 -3.91171910e-02 -1.85703784e-01 -2.05338597e-01
      -1.14380836e-01 -1.05958572e-02 1.93889893e-03 9.60776955e-02
      3.68687208e-03 3.20790298e-02 -3.37581895e-02 -1.59817025e-01
      -6.72658384e-02 9.88916680e-03 3.11549325e-02 -1.65082701e-02
      3.64353023e-02 1.63160004e-02 5.80446534e-02 7.69072911e-03
      -6.15073033e-02 -1.08931690e-01 5.43032726e-03 5.13256639e-02
      2.69454736e-02 4.57236208e-02 -4.89895269e-02 6.56649843e-03
      -1.93431247e-02 -1.35673732e-01 -1.88516632e-01 -8.50012153e-02
      -2.12011579e-02 -1.13670086e-03 8.35538134e-02 -4.70674317e-03
      1.73169523e-02 -7.92784989e-02 -2.18298554e-01 -2.18278944e-01
      -6.63970709e-02 -1.42500233e-02 -1.27710374e-02 6.47023693e-02
      -9.18259844e-02 -1.99168921e-02 -8.91402662e-02 -2.85620391e-01
      -1.42444104e-01 -2.85175033e-02 4.97164391e-02 4.56076153e-02
      6.21292070e-02 3.13274898e-02 -1.28502622e-02 -2.37266980e-02
      -1.32674947e-01 2.90437322e-02 5.05239889e-02 3.44243385e-02
      -8.92069414e-02 -3.27727571e-02 1.02697246e-01 1.03212446e-01
      8.02326053e-02 3.86169963e-02 -2.06191182e-01 -6.65069148e-02
      -1.09720118e-02 7.24375527e-03 1.62105374e-02 -5.96681200e-02
      -2.64617298e-02 -6.55839741e-02 -2.39152148e-01 -2.46614171e-03
      2.71036979e-02 3.20878066e-03 -1.18066251e-01 -2.30042357e-02
      2.94501912e-02 6.17863312e-02 2.87213009e-02 -2.50694249e-02</_></support_vectors>
  <decision_functions>
    <_>
      <sv_count>1</sv_count>
      <rho>-5.1576833288689707e+00</rho>
      <alpha>
        1.</alpha>
      <index>
        0</index></_></decision_functions></my_svm>
</opencv_storage>
